0.598416 -0.741105 0.19916 -1.36461 -1.59273 -0.469284 0.287246 1.60977 0.461064 0.0402931 -0.490878 -0.114151 -2.83649 -0.714011 -0.100591 2.87096
-2.88469 -0.518677 2.53163 -3.39646 -0.20329 -0.666808 -1.88731 0.890048 -0.647318 -1.24769 0.296189 -0.218976 1.96122 3.13717 1.07287 1.05982
-1.92915 0.675114 -0.140622 1.02082 0.825437 -0.145248 -1.51506 0.403635 -0.421878 -1.01918 -0.976268 -0.518511 -2.65426 -6.21001 -0.739886 2.05009
1.35201 0.265838 1.88794 1.64651 0.641478 -1.31214 1.30742 -1.07273 -1.20666 3.33235 2.32069 -0.814724 2.2132 1.2941 1.33618 1.80879
-0.109484 -0.540214 -1.88442 0.185505 0.798415 -0.116692 -0.37897 0.567115 -0.941039 -1.42122 -1.81153 -0.690526 1.34411 -0.813804 0.36108 0.141477
0.410493 0.00526211 0.278828 0.393276 0.0988458 0 0.278104 -0.0545844 -0.0148846 -0.972887 -0.149464 0 -0.461152 0.0177824 -0.00283759 -2.27855
1.49501 -0.975495 -1.38212 -1.77511 -1.04295 0.0541945 1.17693 0.377119 -0.422532 -3.57949 1.92803 -0.294703 1.86062 -4.8966 -0.922076 1.71495
-0.700469
